#pragma once
namespace Eloquent {
    namespace ML {
        namespace Port {
            class SVM {
                public:
                    SVM() {
                    }

                    /**
                    * Predict class for features vector
                    */
                    int predict(float *x) {
                        float kernels[32] = { 0 };
                        float decisions[3] = { 0 };
                        int votes[3] = { 0 };
                        kernels[0] = compute_kernel(x,   42.64  , 43.36  , 45.72  , 52.63  , 62.94  , 72.91  , 83.8  , 97.37  , 117.94  , 138.24  , 155.96  , 172.0  , 197.13  , 229.31  , 252.61  , 270.0  , 289.52  , 330.85  , 361.65  , 373.46  , 379.18  , 408.1  , 447.11  , 455.12  , 461.41  , 469.66  , 502.62  , 533.54  , 521.13  , 520.49  , 573.04  , 605.65  , 581.67  , 555.13  , 524.43  , 539.6  , 535.44  , 515.68  , 489.61  , 455.27  , 447.52  , 434.18  , 405.79  , 372.62  , 337.76  , 323.11  , 306.36  , 282.35  , 254.83  , 228.68  , 210.61  , 193.04  , 170.02  , 145.5  , 124.07  , 108.75  , 97.0  , 82.84  , 69.1  , 58.18  , 49.92  , 45.54  , 42.46  , 40.88 );
                        kernels[1] = compute_kernel(x,   47.28  , 49.12  , 51.69  , 56.04  , 66.19  , 77.53  , 88.12  , 94.94  , 105.69  , 129.64  , 153.64  , 169.69  , 184.48  , 203.97  , 232.36  , 259.39  , 276.84  , 293.82  , 316.04  , 347.37  , 374.08  , 388.08  , 399.41  , 414.59  , 442.11  , 466.03  , 475.58  , 478.18  , 476.41  , 493.87  , 511.36  , 517.7  , 504.71  , 493.45  , 491.9  , 499.74  , 498.22  , 473.72  , 453.34  , 435.97  , 428.94  , 420.43  , 398.09  , 368.24  , 346.68  , 323.75  , 305.17  , 285.66  , 258.88  , 233.74  , 211.03  , 188.58  , 169.03  , 150.44  , 129.64  , 111.81  , 95.87  , 81.08  , 69.51  , 60.03  , 51.83  , 45.81  , 42.29  , 40.56 );
                        kernels[2] = compute_kernel(x,   41.76  , 42.38  , 46.61  , 54.24  , 61.54  , 68.28  , 83.96  , 103.57  , 115.75  , 126.09  , 151.6  , 184.55  , 200.11  , 207.29  , 234.66  , 276.07  , 292.28  , 296.81  , 321.18  , 370.03  , 391.58  , 381.92  , 377.58  , 434.85  , 478.08  , 470.57  , 450.4  , 477.22  , 528.91  , 516.55  , 480.52  , 483.72  , 529.7  , 540.21  , 507.67  , 474.46  , 491.54  , 505.42  , 479.63  , 437.72  , 420.5  , 426.9  , 417.34  , 379.91  , 346.0  , 329.53  , 318.9  , 296.14  , 261.91  , 234.66  , 216.85  , 200.11  , 177.29  , 150.15  , 128.37  , 114.0  , 100.75  , 86.36  , 70.59  , 59.34  , 52.33  , 47.59  , 44.43  , 41.68 );
                        kernels[3] = compute_kernel(x,   42.8  , 42.38  , 45.81  , 53.53  , 62.36  , 70.87  , 82.68  , 100.75  , 118.81  , 134.95  , 148.99  , 176.63  , 206.06  , 224.32  , 236.04  , 268.99  , 306.62  , 327.86  , 339.81  , 365.91  , 408.35  , 431.2  , 430.94  , 439.08  , 480.71  , 504.11  , 491.43  , 469.59  , 496.82  , 528.38  , 519.32  , 490.72  , 493.72  , 527.28  , 510.63  , 484.18  , 517.31  , 465.32  , 451.53  , 427.2  , 410.37  , 401.84  , 415.8  , 395.95  , 378.26  , 344.3  , 325.47  , 307.72  , 277.59  , 246.17  , 228.48  , 210.52  , 182.9  , 155.09  , 131.91  , 117.94  , 102.07  , 85.56  , 71.14  , 60.15  , 53.63  , 47.86  , 43.28  , 41.28 );
                        kernels[4] = compute_kernel(x,   41.2  , 44.19  , 47.59  , 51.42  , 60.03  , 73.04  , 85.24  , 99.06  , 113.56  , 131.66  , 155.38  , 176.63  , 197.5  , 211.03  , 242.02  , 274.05  , 295.04  , 312.33  , 328.25  , 368.65  , 391.58  , 405.79  , 416.39  , 437.39  , 472.81  , 479.63  , 489.57  , 483.9  , 506.55  , 529.36  , 527.28  , 521.7  , 509.71  , 529.27  , 529.36  , 515.3  , 501.08  , 482.11  , 487.79  , 472.81  , 450.9  , 426.09  , 403.48  , 395.22  , 372.09  , 342.38  , 311.74  , 284.56  , 268.49  , 245.24  , 215.6  , 187.46  , 161.11  , 146.09  , 129.38  , 111.16  , 94.94  , 79.97  , 70.59  , 61.08  , 51.83  , 45.72  , 40.98  , 41.04 );
                        kernels[5] = compute_kernel(x,   43.04  , 43.45  , 47.23  , 52.53  , 60.62  , 72.63  , 84.44  , 98.31  , 115.97  , 131.41  , 150.44  , 174.65  , 193.04  , 215.18  , 240.18  , 259.89  , 280.15  , 310.54  , 332.1  , 352.86  , 379.18  , 395.78  , 407.5  , 434.01  , 456.15  , 463.31  , 481.18  , 500.13  , 506.55  , 517.53  , 529.27  , 521.7  , 517.7  , 521.31  , 515.56  , 503.63  , 497.27  , 491.43  , 473.29  , 456.15  , 440.76  , 422.05  , 395.78  , 377.72  , 361.1  , 334.67  , 309.95  , 289.52  , 264.44  , 236.96  , 214.35  , 193.78  , 171.01  , 148.99  , 131.41  , 113.56  , 96.25  , 82.04  , 70.73  , 60.03  , 51.62  , 46.08  , 42.71  , 41.12 );
                        kernels[6] = compute_kernel(x,   44.0  , 46.82  , 50.17  , 52.13  , 48.77  , 56.72  , 73.57  , 88.37  , 103.28  , 122.8  , 142.89  , 167.71  , 204.57  , 232.63  , 252.61  , 275.06  , 295.04  , 324.88  , 341.09  , 367.97  , 394.49  , 409.64  , 418.81  , 423.88  , 449.13  , 475.1  , 486.77  , 488.68  , 486.13  , 502.75  , 521.31  , 523.7  , 512.71  , 494.45  , 495.85  , 497.8  , 482.0  , 466.26  , 454.25  , 440.36  , 439.08  , 426.9  , 402.71  , 379.18  , 354.92  , 340.45  , 319.5  , 293.38  , 266.97  , 238.8  , 218.92  , 200.85  , 177.62  , 153.93  , 132.93  , 113.13  , 98.13  , 83.96  , 69.91  , 58.99  , 50.62  , 45.18  , 42.87  , 41.84 );
                        kernels[7] = compute_kernel(x,   40.96  , 42.87  , 47.68  , 53.13  , 59.92  , 70.59  , 84.6  , 100.75  , 115.31  , 132.42  , 150.73  , 178.28  , 199.73  , 221.83  , 239.26  , 268.49  , 299.45  , 317.11  , 335.95  , 352.86  , 386.47  , 412.72  , 428.52  , 439.92  , 456.15  , 488.7  , 503.56  , 508.72  , 505.57  , 514.57  , 534.24  , 525.7  , 528.7  , 492.46  , 533.3  , 495.85  , 430.46  , 411.24  , 401.66  , 418.43  , 424.72  , 406.69  , 401.94  , 382.83  , 380.32  , 360.36  , 320.1  , 293.38  , 271.01  , 255.37  , 238.86  , 212.75  , 186.53  , 157.99  , 138.5  , 121.44  , 102.63  , 86.36  , 71.14  , 60.96  , 54.34  , 47.95  , 43.36  , 41.36 );
                        kernels[8] = compute_kernel(x,   42.32  , 43.36  , 46.97  , 54.44  , 63.17  , 73.45  , 87.64  , 101.88  , 117.72  , 139.0  , 157.41  , 177.29  , 201.97  , 221.83  , 244.32  , 270.0  , 290.62  , 312.93  , 333.38  , 347.37  , 368.24  , 399.63  , 416.39  , 432.32  , 452.64  , 464.22  , 473.72  , 495.36  , 504.6  , 506.69  , 512.35  , 510.71  , 502.71  , 508.37  , 510.63  , 496.82  , 491.54  , 483.97  , 465.13  , 450.88  , 446.67  , 428.52  , 408.87  , 387.93  , 362.47  , 332.74  , 305.17  , 284.56  , 258.88  , 235.12  , 215.18  , 193.04  , 170.68  , 151.89  , 134.45  , 116.19  , 99.81  , 85.56  , 72.23  , 60.73  , 52.43  , 47.06  , 43.04  , 41.36 );
                        kernels[9] = compute_kernel(x,   42.08  , 42.79  , 45.54  , 52.83  , 60.85  , 70.19  , 83.32  , 98.88  , 114.0  , 129.38  , 151.6  , 173.33  , 192.29  , 216.01  , 242.02  , 264.44  , 282.9  , 309.95  , 337.88  , 354.24  , 379.18  , 405.02  , 424.47  , 434.85  , 450.01  , 479.63  , 482.11  , 494.4  , 510.44  , 517.53  , 513.35  , 508.71  , 530.7  , 516.33  , 511.62  , 507.52  , 503.95  , 482.11  , 460.59  , 468.43  , 436.54  , 421.24  , 399.63  , 386.47  , 353.55  , 328.89  , 318.9  , 286.21  , 263.94  , 236.5  , 220.17  , 192.67  , 169.36  , 155.09  , 130.9  , 115.09  , 96.25  , 84.76  , 71.41  , 59.69  , 52.83  , 45.63  , 43.53  , 40.88 );
                        kernels[10] = compute_kernel(x,   40.88  , 43.12  , 46.88  , 52.03  , 60.62  , 71.55  , 83.64  , 96.06  , 114.0  , 133.43  , 150.44  , 171.34  , 196.76  , 216.85  , 236.04  , 261.91  , 291.73  , 308.75  , 334.03  , 363.16  , 382.1  , 395.01  , 418.01  , 446.67  , 452.64  , 474.19  , 489.57  , 503.95  , 494.88  , 510.63  , 520.31  , 520.7  , 520.7  , 526.28  , 517.53  , 497.8  , 492.49  , 483.04  , 473.29  , 449.13  , 453.43  , 423.67  , 395.78  , 377.72  , 352.18  , 335.31  , 299.2  , 291.18  , 266.46  , 235.58  , 218.09  , 190.43  , 174.65  , 149.57  , 133.69  , 117.28  , 96.06  , 85.08  , 70.73  , 61.54  , 52.83  , 46.88  , 43.45  , 40.8 );
                        kernels[11] = compute_kernel(x,   40.72  , 42.05  , 48.48  , 51.32  , 60.85  , 72.23  , 82.68  , 95.31  , 110.72  , 136.98  , 149.57  , 168.7  , 198.62  , 217.26  , 229.6  , 254.33  , 304.41  , 305.17  , 323.75  , 368.65  , 376.99  , 389.62  , 418.01  , 452.59  , 450.88  , 460.59  , 501.69  , 498.22  , 498.77  , 527.39  , 519.32  , 517.7  , 514.71  , 540.21  , 513.59  , 503.63  , 516.36  , 476.51  , 474.19  , 456.15  , 450.05  , 423.67  , 401.94  , 363.14  , 364.53  , 334.67  , 311.74  , 286.21  , 267.48  , 239.72  , 209.78  , 196.01  , 172.66  , 149.86  , 131.15  , 115.97  , 97.75  , 81.56  , 70.87  , 61.2  , 51.93  , 46.25  , 43.69  , 41.84 );
                        kernels[12] = compute_kernel(x,   41.44  , 43.04  , 46.43  , 52.03  , 60.85  , 71.14  , 83.0  , 97.0  , 113.78  , 132.17  , 151.02  , 171.01  , 195.27  , 216.85  , 238.34  , 260.4  , 288.97  , 311.74  , 332.1  , 359.04  , 382.1  , 400.4  , 416.39  , 439.92  , 459.65  , 471.47  , 483.97  , 502.04  , 508.49  , 510.63  , 512.35  , 525.7  , 522.7  , 514.34  , 517.53  , 511.41  , 495.36  , 477.45  , 476.01  , 459.65  , 436.54  , 422.86  , 405.02  , 379.91  , 352.18  , 335.95  , 313.53  , 286.21  , 262.92  , 242.02  , 216.85  , 191.18  , 171.34  , 153.06  , 131.66  , 113.56  , 98.88  , 83.8  , 69.78  , 60.03  , 53.13  , 46.25  , 42.54  , 42.48 );
                        kernels[13] = compute_kernel(x,   42.72  , 41.97  , 46.43  , 54.44  , 59.45  , 71.82  , 83.8  , 96.25  , 114.88  , 136.22  , 153.64  , 167.38  , 204.57  , 211.45  , 237.88  , 268.99  , 292.28  , 317.11  , 327.6  , 353.55  , 389.39  , 398.86  , 410.73  , 458.5  , 457.9  , 459.69  , 477.45  , 519.22  , 490.02  , 509.65  , 522.3  , 524.7  , 491.72  , 522.3  , 525.42  , 496.82  , 493.45  , 486.77  , 475.1  , 426.32  , 452.59  , 421.24  , 401.17  , 371.16  , 363.85  , 332.74  , 298.0  , 286.21  , 270.0  , 234.2  , 215.18  , 196.76  , 172.0  , 144.63  , 130.14  , 117.28  , 95.31  , 83.48  , 72.23  , 60.27  , 49.92  , 47.14  , 43.45  , 40.88 );
                        kernels[14] = compute_kernel(x,   43.04  , 43.28  , 45.72  , 53.93  , 60.96  , 72.23  , 81.56  , 100.94  , 113.34  , 128.88  , 155.38  , 170.68  , 194.9  , 209.37  , 246.63  , 266.46  , 279.04  , 318.31  , 323.75  , 359.04  , 379.18  , 408.87  , 422.05  , 420.5  , 471.06  , 466.03  , 481.18  , 503.95  , 507.52  , 515.56  , 507.38  , 522.7  , 518.7  , 516.33  , 517.53  , 511.41  , 503.95  , 474.65  , 466.94  , 467.55  , 436.54  , 414.77  , 408.87  , 384.28  , 345.31  , 330.82  , 323.68  , 278.49  , 261.41  , 245.71  , 216.85  , 187.46  , 168.7  , 158.28  , 127.1  , 114.0  , 98.88  , 83.96  , 68.15  , 59.69  , 54.44  , 44.74  , 43.12  , 42.16 );
                        kernels[15] = compute_kernel(x,   41.28  , 42.62  , 47.68  , 51.83  , 59.22  , 72.36  , 83.0  , 97.19  , 112.47  , 135.71  , 151.02  , 169.03  , 198.62  , 216.43  , 239.26  , 259.39  , 293.38  , 312.33  , 328.25  , 368.65  , 383.56  , 404.25  , 422.86  , 450.9  , 464.92  , 461.5  , 497.96  , 503.95  , 501.69  , 517.53  , 520.31  , 518.7  , 495.72  , 510.36  , 513.59  , 490.99  , 500.13  , 494.23  , 470.57  , 446.5  , 431.48  , 434.18  , 395.78  , 378.45  , 359.04  , 328.89  , 314.13  , 288.97  , 268.99  , 235.58  , 211.03  , 196.39  , 171.67  , 153.64  , 130.14  , 112.47  , 98.88  , 83.96  , 71.14  , 59.57  , 53.33  , 45.9  , 42.62  , 42.08 );
                        kernels[16] = compute_kernel(x,   41.44  , 43.04  , 46.34  , 52.03  , 60.85  , 71.14  , 82.68  , 98.13  , 114.44  , 131.15  , 151.31  , 172.66  , 193.41  , 217.26  , 240.18  , 262.42  , 286.21  , 311.74  , 334.67  , 358.36  , 379.91  , 399.63  , 422.05  , 440.76  , 457.02  , 470.57  , 486.77  , 498.22  , 506.55  , 514.57  , 515.34  , 519.7  , 521.7  , 518.32  , 511.62  , 508.49  , 497.27  , 482.11  , 471.47  , 458.78  , 439.92  , 418.81  , 401.17  , 381.37  , 358.36  , 334.03  , 309.95  , 287.31  , 263.94  , 239.26  , 216.43  , 194.53  , 171.67  , 150.44  , 131.91  , 114.22  , 97.56  , 83.16  , 70.87  , 60.62  , 52.23  , 46.43  , 42.87  , 41.68 );
                        kernels[17] = compute_kernel(x,   40.8  , 43.2  , 46.52  , 52.83  , 59.69  , 70.73  , 83.16  , 98.13  , 110.72  , 134.19  , 153.64  , 165.73  , 192.29  , 218.92  , 238.8  , 255.85  , 295.04  , 312.93  , 326.32  , 352.86  , 393.03  , 394.24  , 413.96  , 450.05  , 462.29  , 461.5  , 480.24  , 516.36  , 492.94  , 511.62  , 528.27  , 531.7  , 508.71  , 514.34  , 528.38  , 496.82  , 494.4  , 492.37  , 477.82  , 451.76  , 445.83  , 418.81  , 399.63  , 379.91  , 358.36  , 339.17  , 310.54  , 278.49  , 265.45  , 242.02  , 213.11  , 193.04  , 173.66  , 152.48  , 129.89  , 114.44  , 99.25  , 82.2  , 71.0  , 61.08  , 52.73  , 46.52  , 42.71  , 41.84 );
                        kernels[18] = compute_kernel(x,   41.12  , 43.04  , 46.43  , 52.23  , 60.03  , 71.14  , 83.96  , 97.56  , 113.78  , 130.9  , 151.89  , 172.0  , 193.78  , 215.6  , 242.02  , 264.95  , 285.66  , 308.75  , 336.6  , 357.67  , 378.45  , 400.4  , 424.47  , 442.45  , 457.9  , 469.66  , 483.97  , 502.04  , 504.6  , 512.6  , 521.31  , 523.7  , 520.7  , 513.35  , 512.6  , 508.49  , 496.31  , 483.97  , 474.19  , 458.78  , 439.92  , 422.05  , 401.17  , 379.18  , 357.67  , 335.31  , 311.74  , 286.76  , 263.43  , 239.26  , 215.6  , 193.78  , 172.66  , 151.6  , 131.41  , 113.56  , 98.31  , 83.32  , 70.73  , 60.62  , 52.63  , 46.43  , 42.87  , 41.6 );
                        kernels[19] = compute_kernel(x,   42.72  , 42.87  , 45.45  , 52.33  , 62.01  , 71.82  , 81.72  , 100.38  , 114.0  , 129.64  , 152.77  , 174.98  , 195.27  , 214.35  , 247.55  , 260.9  , 283.45  , 315.92  , 335.31  , 363.16  , 374.8  , 411.95  , 418.81  , 435.7  , 461.41  , 472.38  , 491.43  , 492.49  , 522.1  , 506.69  , 516.33  , 525.7  , 516.7  , 522.3  , 511.62  , 496.82  , 498.22  , 484.91  , 475.1  , 451.76  , 444.99  , 424.47  , 389.62  , 379.91  , 361.79  , 333.38  , 306.96  , 293.93  , 264.95  , 234.66  , 216.01  , 197.13  , 169.03  , 151.02  , 133.43  , 113.56  , 97.19  , 84.92  , 70.05  , 60.85  , 51.93  , 46.08  , 43.45  , 41.44 );
                        kernels[20] = compute_kernel(x,   41.52  , 42.54  , 46.61  , 53.23  , 60.96  , 70.32  , 81.72  , 97.75  , 116.19  , 131.91  , 151.02  , 174.65  , 188.2  , 213.94  , 242.48  , 263.43  , 290.07  , 311.14  , 329.53  , 355.61  , 382.83  , 405.02  , 434.18  , 431.48  , 447.37  , 477.82  , 498.89  , 499.18  , 500.71  , 509.65  , 515.34  , 521.7  , 521.7  , 523.3  , 516.55  , 505.57  , 489.63  , 487.7  , 480.54  , 461.41  , 438.23  , 420.43  , 397.32  , 384.28  , 362.47  , 337.88  , 311.74  , 281.25  , 259.89  , 241.56  , 218.09  , 196.01  , 172.66  , 150.44  , 129.38  , 115.09  , 100.0  , 83.8  , 70.46  , 59.69  , 53.03  , 47.41  , 43.28  , 41.84 );
                        kernels[21] = compute_kernel(x,   41.52  , 41.8  , 45.01  , 53.33  , 61.43  , 70.32  , 82.52  , 96.06  , 113.56  , 132.93  , 152.48  , 173.0  , 193.04  , 211.86  , 239.72  , 267.48  , 290.62  , 309.35  , 330.82  , 354.92  , 382.83  , 406.56  , 426.09  , 442.45  , 453.51  , 473.29  , 493.3  , 500.13  , 503.63  , 509.65  , 507.38  , 519.7  , 522.7  , 524.29  , 514.57  , 503.63  , 494.4  , 489.57  , 476.01  , 465.8  , 444.99  , 416.39  , 394.24  , 387.2  , 360.41  , 334.67  , 309.95  , 281.8  , 261.41  , 242.02  , 216.85  , 193.41  , 170.68  , 148.7  , 132.67  , 115.75  , 96.81  , 83.0  , 68.15  , 59.92  , 53.23  , 46.88  , 42.87  , 40.4 );
                        kernels[22] = compute_kernel(x,   41.44  , 42.95  , 46.7  , 52.13  , 60.03  , 71.0  , 83.8  , 97.19  , 113.78  , 132.67  , 151.6  , 170.68  , 193.41  , 217.26  , 239.26  , 262.42  , 287.31  , 312.93  , 334.67  , 355.61  , 378.45  , 401.17  , 421.24  , 439.92  , 457.02  , 473.29  , 484.91  , 495.36  , 505.57  , 515.56  , 518.32  , 518.7  , 519.7  , 518.32  , 513.59  , 505.57  , 495.36  , 485.84  , 472.38  , 457.02  , 439.92  , 421.24  , 401.17  , 379.91  , 356.98  , 334.67  , 310.54  , 287.31  , 263.43  , 239.72  , 216.43  , 194.15  , 172.0  , 151.31  , 131.91  , 114.0  , 97.75  , 83.32  , 71.0  , 60.62  , 52.33  , 46.43  , 42.95  , 41.68 );
                        kernels[23] = compute_kernel(x,   42.32  , 43.12  , 46.25  , 50.52  , 59.69  , 72.77  , 83.32  , 98.5  , 111.16  , 130.9  , 155.67  , 174.32  , 194.15  , 214.35  , 235.12  , 268.99  , 290.07  , 314.13  , 332.1  , 356.3  , 378.45  , 403.48  , 426.9  , 443.3  , 453.51  , 461.5  , 490.5  , 506.81  , 508.49  , 510.63  , 513.35  , 510.71  , 530.7  , 522.3  , 511.62  , 509.46  , 490.59  , 484.91  , 481.45  , 458.78  , 442.45  , 420.43  , 396.55  , 385.74  , 360.41  , 337.88  , 312.93  , 282.9  , 256.35  , 243.4  , 218.51  , 194.53  , 172.66  , 149.28  , 131.15  , 116.41  , 97.19  , 83.48  , 70.73  , 59.69  , 53.13  , 46.97  , 42.21  , 41.84 );
                        kernels[24] = compute_kernel(x,   41.36  , 43.61  , 47.06  , 51.62  , 59.34  , 72.36  , 85.72  , 98.5  , 112.69  , 128.88  , 155.09  , 177.95  , 196.76  , 213.94  , 228.22  , 270.0  , 291.73  , 312.93  , 326.96  , 343.25  , 388.66  , 405.79  , 426.09  , 433.16  , 447.37  , 471.47  , 489.57  , 504.9  , 510.44  , 505.7  , 508.37  , 526.7  , 531.7  , 522.3  , 501.76  , 493.91  , 507.77  , 490.5  , 475.1  , 455.27  , 424.72  , 420.43  , 412.72  , 378.45  , 350.12  , 328.25  , 314.13  , 292.28  , 265.45  , 240.64  , 213.52  , 190.06  , 173.99  , 155.67  , 132.67  , 112.47  , 95.31  , 84.44  , 71.95  , 60.62  , 51.72  , 44.74  , 42.79  , 42.56 );
                        kernels[25] = compute_kernel(x,   42.24  , 43.12  , 46.34  , 52.83  , 59.8  , 69.91  , 84.44  , 98.88  , 113.56  , 132.67  , 152.18  , 169.69  , 193.78  , 219.75  , 239.26  , 261.91  , 290.62  , 309.95  , 330.17  , 359.04  , 385.01  , 399.63  , 418.81  , 444.99  , 457.02  , 464.22  , 486.77  , 503.95  , 502.66  , 509.65  , 526.28  , 521.7  , 510.71  , 518.32  , 521.48  , 502.66  , 491.54  , 492.37  , 476.01  , 450.01  , 436.54  , 427.71  , 401.94  , 374.8  , 359.04  , 340.45  , 309.95  , 283.45  , 263.43  , 241.56  , 215.18  , 192.67  , 173.66  , 152.48  , 130.65  , 113.13  , 97.94  , 83.64  , 70.46  , 60.38  , 52.63  , 46.7  , 42.71  , 41.52 );
                        kernels[26] = compute_kernel(x,   41.84  , 43.36  , 46.52  , 52.53  , 60.62  , 71.0  , 83.32  , 98.31  , 114.0  , 130.4  , 148.99  , 175.97  , 196.76  , 212.69  , 234.66  , 271.01  , 292.28  , 311.74  , 332.1  , 348.06  , 389.39  , 408.87  , 423.67  , 437.39  , 440.36  , 480.54  , 493.3  , 494.4  , 497.8  , 497.82  , 521.31  , 527.7  , 518.7  , 517.33  , 512.6  , 499.74  , 496.31  , 495.16  , 479.63  , 451.76  , 431.48  , 422.86  , 406.56  , 385.01  , 355.61  , 330.82  , 308.75  , 290.62  , 265.96  , 241.56  , 216.01  , 189.69  , 172.66  , 153.06  , 133.43  , 114.66  , 95.69  , 82.04  , 72.36  , 60.73  , 53.13  , 45.99  , 42.13  , 42.48 );
                        kernels[27] = compute_kernel(x,   42.16  , 43.04  , 46.43  , 51.93  , 60.03  , 71.27  , 83.96  , 98.5  , 114.0  , 131.15  , 150.44  , 171.34  , 195.27  , 218.09  , 242.02  , 260.4  , 286.21  , 316.52  , 335.95  , 359.04  , 374.08  , 397.32  , 423.67  , 444.99  , 457.02  , 472.38  , 479.31  , 495.36  , 512.38  , 519.5  , 524.29  , 521.7  , 509.71  , 516.33  , 521.48  , 510.44  , 499.18  , 478.38  , 463.31  , 466.67  , 444.14  , 423.67  , 398.09  , 372.62  , 362.47  , 341.09  , 309.95  , 286.76  , 257.36  , 238.8  , 221.0  , 194.9  , 172.33  , 148.7  , 131.15  , 116.63  , 97.94  , 83.48  , 69.51  , 59.57  , 53.43  , 47.14  , 42.79  , 41.12 );
                        kernels[28] = compute_kernel(x,   41.04  , 43.04  , 46.97  , 52.03  , 60.27  , 71.82  , 83.0  , 96.06  , 114.22  , 133.43  , 150.73  , 171.34  , 196.01  , 216.85  , 235.58  , 262.42  , 290.62  , 311.14  , 330.82  , 360.41  , 385.01  , 398.86  , 413.96  , 440.76  , 460.53  , 469.66  , 483.04  , 502.04  , 510.44  , 507.67  , 513.35  , 522.7  , 522.7  , 516.33  , 511.62  , 510.44  , 500.13  , 483.04  , 469.66  , 456.15  , 441.61  , 421.24  , 399.63  , 380.64  , 359.73  , 334.67  , 309.35  , 286.21  , 263.43  , 240.18  , 216.01  , 193.41  , 172.66  , 151.89  , 131.66  , 113.78  , 97.56  , 83.32  , 71.0  , 60.62  , 52.43  , 46.61  , 42.79  , 41.52 );
                        kernels[29] = compute_kernel(x,   41.84  , 42.54  , 45.01  , 52.03  , 61.2  , 71.55  , 83.8  , 97.19  , 113.56  , 130.4  , 151.02  , 173.0  , 195.27  , 216.01  , 236.96  , 261.41  , 288.97  , 312.93  , 336.6  , 358.36  , 376.99  , 397.32  , 422.05  , 443.3  , 461.41  , 474.19  , 481.18  , 491.54  , 508.49  , 516.55  , 522.3  , 522.7  , 517.7  , 512.35  , 515.56  , 508.49  , 497.27  , 487.7  , 466.94  , 451.76  , 443.3  , 424.47  , 402.71  , 379.18  , 354.92  , 330.17  , 313.53  , 289.52  , 264.95  , 239.72  , 213.94  , 192.29  , 173.33  , 153.35  , 132.93  , 113.78  , 96.44  , 82.84  , 71.82  , 60.96  , 53.33  , 46.16  , 42.38  , 42.0 );
                        decisions[0] = -13.163478556282
                        + kernels[0] * 0.000501126994
                        + kernels[1] * 0.000147102067
                        + kernels[2] * 0.00010651033
                        + kernels[3] * 0.000232314554
                        + kernels[4] * 0.000664351989
                        + kernels[5] * 0.003146946014
                        + kernels[6] * 0.000419203011
                        + kernels[7] * 0.00019399869
                        + kernels[8] * 0.001593135907
                        + kernels[9] * -0.001018581768
                        + kernels[13] * -0.000799677914
                        + kernels[14] * -8.2824968e-05
                        + kernels[16] * -0.000996238373
                        + kernels[17] * -0.000665373513
                        + kernels[18] * -0.002033426453
                        + kernels[19] * -0.001408566567
                        ;
                        decisions[1] = -2.369199109287
                        + kernels[0] * 0.000606989617
                        + kernels[1] * 0.000422204999
                        + kernels[2] * 0.000201585565
                        + kernels[3] * 0.000313455132
                        + kernels[4] * 0.000800669457
                        + kernels[5] * 0.002937957278
                        + kernels[6] * 0.00037772788
                        + kernels[7] * 0.000207358079
                        + kernels[8] * 0.001569901236
                        + kernels[22] * -0.003087939316
                        + kernels[25] * -0.001424265119
                        + kernels[26] * -7.853002e-06
                        + kernels[27] * -0.000538085008
                        + kernels[28] * -0.000791936731
                        + kernels[29] * -0.001169434905
                       
                        ;
                        decisions[2] = 256.362519195569
                        + kernels[9] * 0.007854879455
                        + kernels[10] * 0.003578308468
                        + kernels[11] * 0.001263382209
                        + kernels[12] * 0.00656115991
                        + kernels[13] * 0.001286984922
                        + kernels[15] * 0.000772627066
                        + kernels[16] * 0.04161298602
                        + kernels[17] * 0.00269652307
                        + kernels[18] * 0.011882905493
                        + kernels[19] * 0.004756050838
                        + kernels[20] * -0.001187278666
                        + kernels[21] * -0.002788803387
                        + kernels[22] * -0.026536686439
                        + kernels[23] * -0.001265875486
                        + kernels[24] * -0.001112304203
                        + kernels[27] * -0.004388663673
                        + kernels[28] * -0.01198059473
                        
                        ;
                        votes[decisions[0] > 0 ? 0 : 1] += 1;
                        votes[decisions[1] > 0 ? 0 : 2] += 1;
                        votes[decisions[2] > 0 ? 1 : 2] += 1;
                        int val = votes[0];
                        int idx = 0;

                        for (int i = 1; i < 3; i++) {
                            if (votes[i] > val) {
                                val = votes[i];
                                idx = i;
                            }
                        }

                        return idx;
                    }

                    /**
                    * Convert class idx to readable name
                    */
                    const char* predictLabel(float *x) {
                        switch (predict(x)) {
                            case 0:
                            return "two";
                            case 1:
                            return "one";
                            case 2:
                            return "three";
                            default:
                            return "Houston we have a problem";
                        }
                    }

                protected:
                    /**
                    * Compute kernel between feature vector and support vector.
                    * Kernel type: linear
                    */
                    float compute_kernel(float *x, ...) {
                        va_list w;
                        va_start(w, 64);
                        float kernel = 0.0;

                        for (uint16_t i = 0; i < 64; i++) {
                            kernel += x[i] * va_arg(w, double);
                        }

                        return kernel;
                    }
                };
            }
        }
    }
